{
    "input_variables": [
        "Ra",
        "Rb",
        "Rc",
        "Ud",
        "Uq",
        "Vd",
        "Vq"
    ],
    "output_variables": [
        "Isd",
        "Isq"
    ],
    "a_0_0": [
        0.24473097920417786,
        0.16215693950653076
    ],
    "b_0_0": [
        0.0331428162753582,
        0.04593357443809509,
        0.018188146874308586
    ],
    "a_0_1": [
        -0.31314751505851746,
        0.09131228923797607
    ],
    "b_0_1": [
        0.09554820507764816,
        0.09844943135976791,
        0.10112570226192474
    ],
    "a_1_0": [
        -0.3673613965511322,
        0.23030531406402588
    ],
    "b_1_0": [
        -0.04823603853583336,
        -0.05579584464430809,
        -0.07556154578924179
    ],
    "a_1_1": [
        -0.07589250802993774,
        0.022822141647338867
    ],
    "b_1_1": [
        -0.018222929909825325,
        -0.025714077055454254,
        -0.013910912908613682
    ],
    "F1": {
        "n_in": 7,
        "n_hid": 20,
        "n_out": 2,
        "activation": "tanh",
        "net.0.weight": [
            [
                -0.05093139410018921,
                0.18437521159648895,
                -0.3591834008693695,
                -0.389874130487442,
                -0.24729113280773163,
                -0.010319841094315052,
                -0.09830642491579056
            ],
            [
                0.29483163356781006,
                0.00860820896923542,
                0.09516170620918274,
                -0.24628309905529022,
                -0.11982270330190659,
                -0.4928274154663086,
                -0.2714330554008484
            ],
            [
                -0.4088168144226074,
                -0.22345560789108276,
                -0.10358845442533493,
                0.2069995403289795,
                -0.5049319863319397,
                -0.1863451451063156,
                -0.1210903748869896
            ],
            [
                0.1293780505657196,
                -0.24702440202236176,
                0.09835619479417801,
                -0.0008579931454733014,
                -0.16690564155578613,
                0.40083441138267517,
                -0.576927661895752
            ],
            [
                -0.33146265149116516,
                -0.19767333567142487,
                -0.24085034430027008,
                0.46401387453079224,
                -0.21200032532215118,
                -0.036981288343667984,
                -0.25805842876434326
            ],
            [
                -0.4229939877986908,
                -0.2911728322505951,
                0.25589028000831604,
                0.3026410937309265,
                0.21229501068592072,
                0.1534787267446518,
                -0.1922016739845276
            ],
            [
                0.03988724201917648,
                -0.34563010931015015,
                -0.29716286063194275,
                -0.31544244289398193,
                0.17893876135349274,
                0.1012188270688057,
                -0.21053318679332733
            ],
            [
                0.0776568129658699,
                0.2664138078689575,
                0.4670414626598358,
                0.27564147114753723,
                0.1542142629623413,
                0.3788280487060547,
                -0.1354762315750122
            ],
            [
                0.08249562978744507,
                -0.24777638912200928,
                -0.24989768862724304,
                -0.32009923458099365,
                0.10710831731557846,
                0.027404824271798134,
                -0.26727333664894104
            ],
            [
                -0.03014717809855938,
                0.06242182478308678,
                -0.19203858077526093,
                0.1477392166852951,
                0.08551359176635742,
                0.36734649538993835,
                0.32734718918800354
            ],
            [
                -0.33402979373931885,
                -0.18744075298309326,
                0.1057823896408081,
                0.43877625465393066,
                0.3655185401439667,
                0.45879265666007996,
                0.08893376588821411
            ],
            [
                -0.4685105085372925,
                -0.10130229592323303,
                -0.376295804977417,
                -0.21422886848449707,
                0.32515421509742737,
                0.42489975690841675,
                -0.41945990920066833
            ],
            [
                0.3041905164718628,
                0.15284691751003265,
                0.17124781012535095,
                -0.2083945870399475,
                0.39115196466445923,
                -0.2574463486671448,
                0.39476922154426575
            ],
            [
                0.3602779805660248,
                0.3986099660396576,
                0.31046348810195923,
                -0.4169502854347229,
                -0.07062405347824097,
                0.14693094789981842,
                0.2662823796272278
            ],
            [
                -0.2536526620388031,
                -0.14806577563285828,
                0.3967612385749817,
                0.13253779709339142,
                -0.22609595954418182,
                -0.21706560254096985,
                -0.40185409784317017
            ],
            [
                0.2491939216852188,
                -0.041158527135849,
                -0.035557787865400314,
                -0.006585713010281324,
                0.29838424921035767,
                -0.13856500387191772,
                0.47493430972099304
            ],
            [
                -0.16597044467926025,
                0.39740580320358276,
                0.3230547606945038,
                -0.45097410678863525,
                -0.1239088848233223,
                -0.11481355875730515,
                0.0518094077706337
            ],
            [
                -0.12726405262947083,
                -0.05603883042931557,
                -0.1942673921585083,
                -0.047647442668676376,
                0.11176931858062744,
                -0.22638502717018127,
                -0.322841614484787
            ],
            [
                0.15522730350494385,
                0.04568728432059288,
                0.11761851608753204,
                -0.3253443241119385,
                0.15230752527713776,
                0.06712130457162857,
                -0.002940182341262698
            ],
            [
                -0.18722239136695862,
                0.14688505232334137,
                -0.2066803127527237,
                -0.08497479557991028,
                -0.18322354555130005,
                -0.019306663423776627,
                0.09027433395385742
            ]
        ],
        "net.0.bias": [
            0.3703114688396454,
            0.2632203996181488,
            0.35424286127090454,
            0.03003508411347866,
            -0.36098599433898926,
            -0.2041613757610321,
            0.2862594723701477,
            -0.01000463031232357,
            -0.15522858500480652,
            -0.31082212924957275,
            -0.3748723268508911,
            -0.34861502051353455,
            -0.09691586345434189,
            0.16139738261699677,
            0.23539818823337555,
            -0.36457282304763794,
            0.2608329653739929,
            -0.3223720192909241,
            -0.11153769493103027,
            -0.11478032171726227
        ],
        "net.2.weight": [
            [
                -0.09408816695213318,
                -0.10323628038167953,
                -0.24690133333206177,
                -0.10761437565088272,
                -0.007550498936325312,
                0.0523909293115139,
                -0.1478930413722992,
                0.22274772822856903,
                -0.1943509876728058,
                0.039270538836717606,
                0.2562018930912018,
                -0.06647791713476181,
                0.23464465141296387,
                0.055324163287878036,
                -0.2478557825088501,
                0.18001271784305573,
                -0.07620039582252502,
                -0.08640264719724655,
                0.18301184475421906,
                -0.1532316505908966
            ],
            [
                -0.017247477546334267,
                -0.1186533197760582,
                0.13975553214550018,
                0.22779487073421478,
                0.16463570296764374,
                0.14756377041339874,
                -0.08671067655086517,
                0.07284282147884369,
                -0.16777120530605316,
                0.17071501910686493,
                0.24444566667079926,
                0.19719572365283966,
                -0.23175768554210663,
                -0.054471034556627274,
                -0.1763259321451187,
                -0.10405022650957108,
                -0.19872450828552246,
                0.08248275518417358,
                -0.15595878660678864,
                0.019027091562747955
            ]
        ],
        "net.2.bias": [
            -0.02504769340157509,
            0.11471854150295258
        ]
    },
    "F2": {
        "n_in": 2,
        "n_hid": 20,
        "n_out": 2,
        "activation": "tanh",
        "net.0.weight": [
            [
                -0.30481234192848206,
                0.0711202621459961
            ],
            [
                0.5351235866546631,
                -0.7210614085197449
            ],
            [
                0.5627527832984924,
                -0.6474816799163818
            ],
            [
                -0.04421586915850639,
                -0.17074769735336304
            ],
            [
                -0.3217846155166626,
                0.024084217846393585
            ],
            [
                0.770919680595398,
                -0.2757987380027771
            ],
            [
                -0.3359321355819702,
                -0.3345119059085846
            ],
            [
                -0.7825239300727844,
                0.3752521872520447
            ],
            [
                -0.4385443925857544,
                -0.4004983603954315
            ],
            [
                -0.4512030780315399,
                0.4718453586101532
            ],
            [
                0.42423292994499207,
                0.4773876667022705
            ],
            [
                0.2599862813949585,
                -0.29518577456474304
            ],
            [
                -0.16136862337589264,
                0.26204586029052734
            ],
            [
                0.701805830001831,
                0.12119143456220627
            ],
            [
                -0.3831762671470642,
                -0.3864745497703552
            ],
            [
                -0.6386469006538391,
                0.08651724457740784
            ],
            [
                -0.3362998366355896,
                -0.6987181305885315
            ],
            [
                0.6593071222305298,
                -0.5235482454299927
            ],
            [
                -0.018249575048685074,
                0.24305947124958038
            ],
            [
                0.01216405350714922,
                -0.41052767634391785
            ]
        ],
        "net.0.bias": [
            -0.5413563847541809,
            0.543438196182251,
            0.08381723612546921,
            0.5467709302902222,
            -0.2694533169269562,
            0.1862150877714157,
            -0.19203762710094452,
            -0.0011483841808512807,
            -0.4017079472541809,
            0.2714802324771881,
            0.19226352870464325,
            -0.051316991448402405,
            -0.12209959328174591,
            -0.4628400206565857,
            0.44973963499069214,
            -0.5598368048667908,
            0.25880151987075806,
            -0.27045559883117676,
            -0.30628398060798645,
            0.16290965676307678
        ],
        "net.2.weight": [
            [
                -0.10186133533716202,
                0.03969624638557434,
                0.05851754546165466,
                -0.18242788314819336,
                0.046201709657907486,
                0.0974017083644867,
                0.09472856670618057,
                -0.11904933303594589,
                -0.17041191458702087,
                -0.060608331114053726,
                0.06882020086050034,
                -0.012930025346577168,
                0.09358982741832733,
                0.17167386412620544,
                -0.13620063662528992,
                0.01306117046624422,
                0.07113505154848099,
                0.04775084927678108,
                0.03375178575515747,
                0.014847449958324432
            ],
            [
                -0.14249396324157715,
                -0.015112693421542645,
                0.12556347250938416,
                0.1684381067752838,
                0.1652992218732834,
                -0.002981665078550577,
                0.13979893922805786,
                -0.09106085449457169,
                -0.1513499617576599,
                -0.22666937112808228,
                0.1883184015750885,
                0.18135768175125122,
                -0.12280304729938507,
                0.12057293951511383,
                0.136268749833107,
                0.2571285665035248,
                0.16419343650341034,
                0.20757170021533966,
                -0.0186458732932806,
                -0.11056762933731079
            ]
        ],
        "net.2.bias": [
            0.16712579131126404,
            0.09193263947963715
        ]
    },
    "normfacs": {
        "Isd": {
            "offset": 3.4480528831481934,
            "scale": 43.27613830566406
        },
        "Isq": {
            "offset": 2.390915870666504,
            "scale": 28.00843620300293
        },
        "Ra": {
            "offset": 49.49588394165039,
            "scale": 51.999977111816406
        },
        "Rb": {
            "offset": 54.747947692871094,
            "scale": 51.999977111816406
        },
        "Rc": {
            "offset": 49.49588394165039,
            "scale": 51.999977111816406
        },
        "Ud": {
            "offset": 0.4747753143310547,
            "scale": 1.0
        },
        "Uq": {
            "offset": 8.098133275069586e-11,
            "scale": 0.4000000059604645
        },
        "Vd": {
            "offset": 143.28477478027344,
            "scale": 329.87640380859375
        },
        "Vq": {
            "offset": -2.0006730556488037,
            "scale": 158.86859130859375
        }
    },
    "dataset_class": "test",
    "dataset_name": "test",
    "model_name": "new_model_test_1",
    "optimizer_name": "Adam",
    "lr": 0.001,
    "eps": 0,
    "weight_decay": 0,
    "num_iter": 2,
    "batch_size": 128,
    "n_validation_pct": 0.2,
    "na": 2,
    "nb": 3,
    "nk": 0,
    "activation": "tanh",
    "f1_nodes": 20,
    "f2_nodes": 20,
    "f1_output_dim": 2,
    "f2_input_dim": 2,
    "f2_output_dim": 2,
    "criterion": "MSE",
    "msg_freq": 100,
    "dt": 0.01,
    "dc_gain": false
}