{
    "input_variables": [
        "Ra",
        "Rb",
        "Rc",
        "Ud",
        "Uq",
        "Vd",
        "Vq"
    ],
    "output_variables": [
        "Isd",
        "Isq"
    ],
    "a_0_0": [
        0.6520208120346069,
        0.378070592880249
    ],
    "b_0_0": [
        0.15059295296669006,
        -0.16597971320152283,
        -0.08476576209068298
    ],
    "a_0_1": [
        0.15460099279880524,
        -0.0012154579162597656
    ],
    "b_0_1": [
        0.6092696785926819,
        0.398054838180542,
        0.03322651609778404
    ],
    "a_1_0": [
        -0.15582908689975739,
        -0.08141589164733887
    ],
    "b_1_0": [
        -0.2766049802303314,
        -0.660845935344696,
        -0.6610901951789856
    ],
    "a_1_1": [
        -0.3233291506767273,
        -0.033210694789886475
    ],
    "b_1_1": [
        0.5771412253379822,
        0.4160078763961792,
        0.21110908687114716
    ],
    "F1": {
        "n_in": 7,
        "n_hid": 20,
        "n_out": 2,
        "activation": "tanh",
        "net.0.weight": [
            [
                0.46315300464630127,
                0.09327894449234009,
                0.2542084753513336,
                -0.03187771141529083,
                -0.7674828171730042,
                0.16971388459205627,
                0.674378514289856
            ],
            [
                0.42156362533569336,
                0.01818840764462948,
                0.2763771116733551,
                -0.518220841884613,
                -0.03200109675526619,
                -0.12884192168712616,
                -0.02884024940431118
            ],
            [
                -0.039035145193338394,
                -0.03825614973902702,
                0.032330431044101715,
                0.25910675525665283,
                -1.1900051832199097,
                -0.04121409356594086,
                0.22752447426319122
            ],
            [
                0.6556417346000671,
                0.0056846956722438335,
                0.7216185927391052,
                -0.5727984309196472,
                -0.11137515306472778,
                0.01032160222530365,
                -0.1066773533821106
            ],
            [
                -0.9191538095474243,
                -0.015485421754419804,
                -0.8294256329536438,
                0.4646579325199127,
                0.09113209694623947,
                -0.07576965540647507,
                0.03652498498558998
            ],
            [
                -0.5679114460945129,
                0.0015160896582528949,
                0.11107507348060608,
                1.2948901653289795,
                -0.10391069203615189,
                0.10567043721675873,
                -0.1079835370182991
            ],
            [
                -0.8973904252052307,
                -0.18543143570423126,
                -0.9708388447761536,
                0.24156686663627625,
                0.6586359739303589,
                0.029161004349589348,
                0.005398969165980816
            ],
            [
                -0.035432178527116776,
                0.032594192773103714,
                0.2621344029903412,
                0.2829654812812805,
                -0.6783895492553711,
                0.09184373915195465,
                -0.5663192272186279
            ],
            [
                0.3008599281311035,
                -0.014250229112803936,
                0.08598887920379639,
                -1.6369633674621582,
                0.5421997308731079,
                -0.011931318789720535,
                0.04108753800392151
            ],
            [
                -0.17324095964431763,
                -0.06383386254310608,
                -0.1501064896583557,
                0.23029085993766785,
                -0.08762965351343155,
                0.14030112326145172,
                0.09332329034805298
            ],
            [
                -0.5229781866073608,
                -0.1559743732213974,
                -0.2628036439418793,
                0.6051320433616638,
                0.5814063549041748,
                0.04910761117935181,
                -0.021185487508773804
            ],
            [
                -0.3953791856765747,
                -0.0866256058216095,
                -0.3634159564971924,
                0.24759867787361145,
                0.19338062405586243,
                0.15516072511672974,
                -0.048674460500478745
            ],
            [
                0.06959637254476547,
                -0.09458660334348679,
                -0.05658065900206566,
                0.04029233008623123,
                1.0596119165420532,
                -0.09605240821838379,
                -0.13638268411159515
            ],
            [
                0.508641242980957,
                0.13284645974636078,
                0.44408419728279114,
                -0.6082862019538879,
                -0.4218049645423889,
                0.18524451553821564,
                -0.0023676655255258083
            ],
            [
                -0.14053072035312653,
                -0.45187291502952576,
                0.33814889192581177,
                0.06410971283912659,
                -0.06817498803138733,
                -0.21321488916873932,
                0.49036428332328796
            ],
            [
                0.18402110040187836,
                0.1391860842704773,
                0.22476468980312347,
                1.8816618919372559,
                -0.5451980233192444,
                0.138316348195076,
                -0.04111051559448242
            ],
            [
                -0.009330492466688156,
                0.12087050825357437,
                0.7405012249946594,
                -0.9417431950569153,
                -0.1177140548825264,
                -0.038248155266046524,
                -0.005488088820129633
            ],
            [
                0.019837381318211555,
                0.12502942979335785,
                -0.07982680946588516,
                -0.15403828024864197,
                -0.1555984765291214,
                -0.26109668612480164,
                0.42214909195899963
            ],
            [
                -0.013894605450332165,
                0.005151120014488697,
                -0.0698302760720253,
                -0.11817711591720581,
                0.3471587300300598,
                0.10229628533124924,
                -0.2734910845756531
            ],
            [
                0.035453565418720245,
                0.07361738383769989,
                -0.12604522705078125,
                -0.3848777413368225,
                -0.05095186084508896,
                0.07014253735542297,
                0.37526047229766846
            ]
        ],
        "net.0.bias": [
            1.016249418258667,
            0.5286347270011902,
            0.05105588585138321,
            -0.2867587208747864,
            -1.6948450803756714,
            0.1331322193145752,
            -0.6812183260917664,
            -0.14668616652488708,
            -0.538936972618103,
            -0.43717285990715027,
            -0.8685192465782166,
            -0.758734405040741,
            0.19257192313671112,
            1.0903817415237427,
            0.3107609748840332,
            -0.23526664078235626,
            0.5606331825256348,
            -0.34277692437171936,
            0.008545908145606518,
            -0.2045794129371643
        ],
        "net.2.weight": [
            [
                -0.6088312864303589,
                -0.039212051779031754,
                -0.4724107086658478,
                0.11742668598890305,
                0.20657046139240265,
                0.23674380779266357,
                -0.3034302294254303,
                0.8744634985923767,
                -0.1286448836326599,
                -0.0006725677521899343,
                0.34138381481170654,
                0.029630452394485474,
                0.5332174897193909,
                -0.19999359548091888,
                -0.21479184925556183,
                -0.19579903781414032,
                -0.154836967587471,
                -0.27623602747917175,
                0.7739107012748718,
                -0.4641038775444031
            ],
            [
                -0.05508522316813469,
                -0.07158699631690979,
                0.17355582118034363,
                0.2454873025417328,
                0.870081901550293,
                0.23991183936595917,
                -0.5217780470848083,
                -0.04731082543730736,
                -0.4440442621707916,
                -0.009635220281779766,
                0.4037024676799774,
                0.0872490331530571,
                -0.23223836719989777,
                -0.3336294889450073,
                0.124577596783638,
                -0.3022570312023163,
                -0.6005359292030334,
                -0.0004339301958680153,
                -0.1287546306848526,
                -0.06818036735057831
            ]
        ],
        "net.2.bias": [
            0.2553905248641968,
            0.2067340463399887
        ]
    },
    "F2": {
        "n_in": 2,
        "n_hid": 20,
        "n_out": 2,
        "activation": "tanh",
        "net.0.weight": [
            [
                -0.479359894990921,
                0.3355971574783325
            ],
            [
                0.5501187443733215,
                -0.8450759649276733
            ],
            [
                0.3521029055118561,
                -0.8566052317619324
            ],
            [
                -0.4104878604412079,
                -0.4004583954811096
            ],
            [
                -0.10815181583166122,
                0.2754369378089905
            ],
            [
                0.5983866453170776,
                -0.543821394443512
            ],
            [
                -0.4629083573818207,
                -0.5566139817237854
            ],
            [
                -0.8547130227088928,
                0.2746553122997284
            ],
            [
                -0.06799182295799255,
                -0.43851789832115173
            ],
            [
                -0.4715369939804077,
                0.4606597125530243
            ],
            [
                0.812188982963562,
                0.6565813422203064
            ],
            [
                0.339932918548584,
                -0.2963640093803406
            ],
            [
                -0.2902798652648926,
                0.2949914038181305
            ],
            [
                1.3648836612701416,
                0.7963007688522339
            ],
            [
                -1.6953511238098145,
                -1.0854202508926392
            ],
            [
                -0.21955405175685883,
                0.3667412996292114
            ],
            [
                0.07993977516889572,
                -2.4012327194213867
            ],
            [
                0.6000930666923523,
                -0.4776715636253357
            ],
            [
                -0.13405704498291016,
                0.32318180799484253
            ],
            [
                0.007812041789293289,
                -0.3426981568336487
            ]
        ],
        "net.0.bias": [
            -0.4514051079750061,
            1.0656489133834839,
            0.157906636595726,
            0.5113735795021057,
            -0.22946029901504517,
            0.24785524606704712,
            -0.2474476546049118,
            0.19525007903575897,
            -0.47099238634109497,
            0.26521390676498413,
            0.047604817897081375,
            -0.006855331361293793,
            -0.11491504311561584,
            -0.7212222218513489,
            0.7771872878074646,
            -0.5299328565597534,
            0.7213967442512512,
            -0.29272645711898804,
            -0.10371347516775131,
            0.14149264991283417
        ],
        "net.2.weight": [
            [
                -0.08322947472333908,
                0.13627278804779053,
                0.03546491637825966,
                -0.10867293179035187,
                0.020207978785037994,
                0.10289933532476425,
                0.0425892174243927,
                -0.18587037920951843,
                -0.18466725945472717,
                0.06509917974472046,
                0.05896497517824173,
                -0.01731305569410324,
                0.002706192433834076,
                0.1953202188014984,
                -0.13951674103736877,
                0.0032977978698909283,
                0.023396551609039307,
                -0.05364782363176346,
                -0.0014663939364254475,
                0.044592563062906265
            ],
            [
                -0.13439977169036865,
                -0.0154309943318367,
                0.1278485357761383,
                0.15223397314548492,
                0.11281846463680267,
                -0.009825465269386768,
                0.16297534108161926,
                -0.009312346577644348,
                -0.1317722350358963,
                -0.20719340443611145,
                0.15327900648117065,
                0.14140819013118744,
                -0.09051389992237091,
                0.12011353671550751,
                0.11546429246664047,
                0.2053757756948471,
                0.2480882704257965,
                0.1917896866798401,
                -0.006234964355826378,
                -0.11773219704627991
            ]
        ],
        "net.2.bias": [
            0.3003431260585785,
            -0.05414817854762077
        ]
    },
    "normfacs": {
        "Isd": {
            "offset": 3.4480528831481934,
            "scale": 43.27613830566406
        },
        "Isq": {
            "offset": 2.390915870666504,
            "scale": 28.00843620300293
        },
        "Ra": {
            "offset": 49.49588394165039,
            "scale": 51.999977111816406
        },
        "Rb": {
            "offset": 54.747947692871094,
            "scale": 51.999977111816406
        },
        "Rc": {
            "offset": 49.49588394165039,
            "scale": 51.999977111816406
        },
        "Ud": {
            "offset": 0.4747753143310547,
            "scale": 1.0
        },
        "Uq": {
            "offset": 8.098133275069586e-11,
            "scale": 0.4000000059604645
        },
        "Vd": {
            "offset": 143.28477478027344,
            "scale": 329.87640380859375
        },
        "Vq": {
            "offset": -2.0006730556488037,
            "scale": 158.86859130859375
        }
    },
    "dataset_class": "test",
    "dataset_name": "test",
    "model_name": "model_sens",
    "optimizer_name": "Adam",
    "lr": 0.001,
    "eps": 0,
    "weight_decay": 0,
    "num_iter": 300,
    "batch_size": 128,
    "n_validation_pct": 0.2,
    "na": 2,
    "nb": 3,
    "nk": 0,
    "activation": "tanh",
    "f1_nodes": 20,
    "f2_nodes": 20,
    "f1_output_dim": 2,
    "f2_input_dim": 2,
    "f2_output_dim": 2,
    "criterion": "MSE",
    "msg_freq": 100,
    "dt": 0.01,
    "dc_gain": false,
    "sensitivity": true
}