{
    "input_variables": [
        "Ra",
        "Rb",
        "Rc",
        "Ud",
        "Uq",
        "Vd",
        "Vq"
    ],
    "output_variables": [
        "Isd",
        "Isq"
    ],
    "a_0_0": [
        -0.1558205932378769,
        -0.1543933004140854
    ],
    "b_0_0": [
        0.07712887972593307,
        0.07419205456972122
    ],
    "a_0_1": [
        -0.11510790139436722,
        -0.10204347223043442
    ],
    "b_0_1": [
        0.09978675842285156,
        0.09522216022014618
    ],
    "a_1_0": [
        -0.1125820130109787,
        -0.10133061558008194
    ],
    "b_1_0": [
        0.10725933313369751,
        0.11202730238437653
    ],
    "a_1_1": [
        -0.10282618552446365,
        -0.10488154739141464
    ],
    "b_1_1": [
        -0.10436344891786575,
        -0.1005883440375328
    ],
    "F1": {
        "n_in": 7,
        "n_hid": 20,
        "n_out": 2,
        "activation": "tanh",
        "net.0.weight": [
            [
                0.19146385788917542,
                0.3794606328010559,
                -0.11678814142942429,
                -0.34741687774658203,
                0.07721061259508133,
                0.03452833369374275,
                0.24372750520706177
            ],
            [
                0.42574018239974976,
                0.08417883515357971,
                0.22607025504112244,
                -0.22017312049865723,
                -0.015552808530628681,
                -0.4659520983695984,
                -0.1582309454679489
            ],
            [
                -0.0469534806907177,
                0.07807506620883942,
                0.25827479362487793,
                0.348131000995636,
                -0.06557422876358032,
                -0.043314918875694275,
                0.31747642159461975
            ],
            [
                0.3988555371761322,
                -0.037739984691143036,
                0.3678336441516876,
                0.03771265968680382,
                0.1869352012872696,
                0.44104862213134766,
                -0.21912185847759247
            ],
            [
                -0.35554441809654236,
                -0.2001819759607315,
                -0.26493170857429504,
                0.43795469403266907,
                -0.23212511837482452,
                -0.06362716108560562,
                -0.28233590722084045
            ],
            [
                -0.4751830995082855,
                -0.3233315944671631,
                0.2037012279033661,
                0.27569136023521423,
                0.1638287603855133,
                0.1258939802646637,
                -0.2394743114709854
            ],
            [
                0.21102876961231232,
                -0.21352174878120422,
                -0.1260214000940323,
                -0.28894558548927307,
                0.33232051134109497,
                0.12844373285770416,
                -0.03318477421998978
            ],
            [
                -0.21159136295318604,
                0.056373607367277145,
                0.17779357731342316,
                0.21301516890525818,
                -0.18102194368839264,
                0.3137979805469513,
                -0.4781169593334198
            ],
            [
                0.2035939246416092,
                -0.1595175862312317,
                -0.12879939377307892,
                -0.30133992433547974,
                0.21176570653915405,
                0.046824052929878235,
                -0.14777638018131256
            ],
            [
                -0.016485273838043213,
                0.07199464738368988,
                -0.178376704454422,
                0.12305193394422531,
                0.14599521458148956,
                0.34238359332084656,
                0.3933451175689697
            ],
            [
                -0.4454600512981415,
                -0.2700875699520111,
                -0.005647942889481783,
                0.4170635938644409,
                0.26103129982948303,
                0.43634727597236633,
                -0.03729036822915077
            ],
            [
                -0.4056016802787781,
                -0.041253507137298584,
                -0.31338685750961304,
                -0.24132980406284332,
                0.4158044457435608,
                0.3976147472858429,
                -0.32332468032836914
            ],
            [
                0.05632622167468071,
                -0.050006866455078125,
                -0.07661637663841248,
                -0.28816160559654236,
                0.021565115079283714,
                -0.33848631381988525,
                0.03334896266460419
            ],
            [
                0.1407431811094284,
                0.23282994329929352,
                0.09092868119478226,
                -0.40575772523880005,
                -0.3428550362586975,
                0.15775887668132782,
                0.004629481118172407
            ],
            [
                -0.15917053818702698,
                -0.08292736858129501,
                0.4912434220314026,
                0.1527262181043625,
                -0.13376827538013458,
                -0.19643987715244293,
                -0.290221631526947
            ],
            [
                -0.08378265053033829,
                -0.31946292519569397,
                -0.368534654378891,
                -0.14765095710754395,
                -0.142777219414711,
                -0.2814652919769287,
                0.03676576167345047
            ],
            [
                -0.11318862438201904,
                0.4341234862804413,
                0.3758365511894226,
                -0.4244718849658966,
                -0.07967040687799454,
                -0.0877479836344719,
                0.09651470929384232
            ],
            [
                0.29547542333602905,
                0.31257808208465576,
                0.22847209870815277,
                -0.059828560799360275,
                0.4681794047355652,
                -0.23556631803512573,
                0.06994011253118515
            ],
            [
                -0.12992487847805023,
                -0.17629429697990417,
                -0.1675337255001068,
                -0.4283243715763092,
                -0.24732638895511627,
                -0.03750860318541527,
                -0.39825156331062317
            ],
            [
                0.1724362075328827,
                0.4294891655445099,
                0.15297825634479523,
                -0.039282236248254776,
                0.2601328194141388,
                0.02943401411175728,
                0.5410127639770508
            ]
        ],
        "net.0.bias": [
            0.3221520781517029,
            0.25473254919052124,
            0.38621363043785095,
            0.016590476036071777,
            -0.31989166140556335,
            -0.17282085120677948,
            0.2431865930557251,
            0.03372188284993172,
            -0.2015669345855713,
            -0.26123303174972534,
            -0.3502786159515381,
            -0.33289384841918945,
            -0.13256818056106567,
            0.1853705197572708,
            0.20480456948280334,
            -0.37584081292152405,
            0.23316225409507751,
            -0.19593901932239532,
            -0.15023984014987946,
            -0.12581709027290344
        ],
        "net.2.weight": [
            [
                -0.10809406638145447,
                -0.12960200011730194,
                -0.20863190293312073,
                -0.21146142482757568,
                0.14149390161037445,
                0.11195192486047745,
                -0.1200762689113617,
                0.26376038789749146,
                -0.19004866480827332,
                -0.08102130144834518,
                0.25540292263031006,
                0.004671128001064062,
                0.11529234051704407,
                0.055020853877067566,
                -0.0706474557518959,
                0.19091050326824188,
                -0.1268002688884735,
                -0.21929898858070374,
                0.29533475637435913,
                -0.36682143807411194
            ],
            [
                -0.03345600515604019,
                -0.14329217374324799,
                0.19406656920909882,
                0.16877354681491852,
                0.20609116554260254,
                0.1790078729391098,
                -0.04921296238899231,
                0.07071249186992645,
                -0.2188025265932083,
                0.188157856464386,
                0.2755981385707855,
                0.21358411014080048,
                -0.26939675211906433,
                -0.07415246218442917,
                -0.12077576667070389,
                -0.15590699017047882,
                -0.2292124480009079,
                -0.00014038650260772556,
                -0.22636283934116364,
                -0.06044008210301399
            ]
        ],
        "net.2.bias": [
            0.020747536793351173,
            0.15819191932678223
        ]
    },
    "F2": {
        "n_in": 2,
        "n_hid": 20,
        "n_out": 2,
        "activation": "tanh",
        "net.0.weight": [
            [
                0.6057590246200562,
                -0.7039190530776978
            ],
            [
                0.05310671776533127,
                0.768807053565979
            ],
            [
                0.24603798985481262,
                0.14586611092090607
            ],
            [
                -0.7731156349182129,
                0.394561767578125
            ],
            [
                -0.636962890625,
                -0.12202677130699158
            ],
            [
                -0.1053108498454094,
                -0.1694514900445938
            ],
            [
                0.08876502513885498,
                0.49174022674560547
            ],
            [
                0.20426034927368164,
                0.6881382465362549
            ],
            [
                0.31639498472213745,
                -0.5115624666213989
            ],
            [
                0.3897741138935089,
                -0.6099166870117188
            ],
            [
                -0.4040634334087372,
                0.12543044984340668
            ],
            [
                0.1322452872991562,
                0.6489077806472778
            ],
            [
                -0.3149963319301605,
                0.10146254301071167
            ],
            [
                0.5155884027481079,
                -0.7201747298240662
            ],
            [
                0.6431412100791931,
                -0.6753547191619873
            ],
            [
                -0.06603585183620453,
                0.0028530547861009836
            ],
            [
                -0.3999602496623993,
                -0.034431252628564835
            ],
            [
                0.4799558222293854,
                -0.29318124055862427
            ],
            [
                -0.29859107732772827,
                -0.2068200260400772
            ],
            [
                -0.8120287656784058,
                0.3621470630168915
            ]
        ],
        "net.0.bias": [
            -0.3160422444343567,
            -0.49108579754829407,
            -0.42277494072914124,
            0.4262905716896057,
            0.3945750594139099,
            0.5219795107841492,
            0.2347647249698639,
            -0.25596922636032104,
            -0.17652100324630737,
            0.18675142526626587,
            0.6004442572593689,
            0.21049931645393372,
            -0.31311964988708496,
            -0.3522152602672577,
            -0.6867942810058594,
            0.17066745460033417,
            -0.375360369682312,
            -0.6103399991989136,
            0.600081205368042,
            -0.43726110458374023
        ],
        "net.2.weight": [
            [
                -0.0013914379524067044,
                0.08423689752817154,
                0.02830088697373867,
                -0.17369331419467926,
                -0.2034316509962082,
                0.1571987271308899,
                0.01565132476389408,
                0.20608197152614594,
                -0.05041728541254997,
                0.048277080059051514,
                -0.07246900349855423,
                -0.029735414311289787,
                -0.11670525372028351,
                0.09847230464220047,
                0.09261738508939743,
                -0.025436468422412872,
                -0.030813714489340782,
                -0.11586761474609375,
                0.13323113322257996,
                -0.1477896124124527
            ],
            [
                0.11666164547204971,
                -0.09320513904094696,
                -0.10905560106039047,
                0.029725266620516777,
                -0.11088728904724121,
                0.05264698341488838,
                0.01021838653832674,
                -0.20064514875411987,
                0.07300421595573425,
                0.13048456609249115,
                0.08460795879364014,
                -0.06745408475399017,
                -0.18376177549362183,
                -0.009322642348706722,
                0.08769714087247849,
                -0.07664363086223602,
                0.08480138331651688,
                0.15500736236572266,
                -0.11423508822917938,
                -0.007688917685300112
            ]
        ],
        "net.2.bias": [
            0.07183686643838882,
            0.016154253855347633
        ]
    },
    "normfacs": {
        "Isd": {
            "offset": 3.4480528831481934,
            "scale": 43.27613830566406
        },
        "Isq": {
            "offset": 2.390915870666504,
            "scale": 28.00843620300293
        },
        "Ra": {
            "offset": 49.49588394165039,
            "scale": 51.999977111816406
        },
        "Rb": {
            "offset": 54.747947692871094,
            "scale": 51.999977111816406
        },
        "Rc": {
            "offset": 49.49588394165039,
            "scale": 51.999977111816406
        },
        "Ud": {
            "offset": 0.4747753143310547,
            "scale": 1.0
        },
        "Uq": {
            "offset": 8.098133275069586e-11,
            "scale": 0.4000000059604645
        },
        "Vd": {
            "offset": 143.28477478027344,
            "scale": 329.87640380859375
        },
        "Vq": {
            "offset": -2.0006730556488037,
            "scale": 158.86859130859375
        }
    },
    "dataset_class": "test",
    "dataset_name": "test",
    "model_name": "new_model_test",
    "optimizer_name": "Adam",
    "lr": 0.001,
    "eps": 0,
    "weight_decay": 0,
    "num_iter": 2,
    "batch_size": 128,
    "n_validation_pct": 0.2,
    "na": 2,
    "nb": 2,
    "nk": 0,
    "activation": "tanh",
    "f1_nodes": 20,
    "f2_nodes": 20,
    "f1_output_dim": 2,
    "f2_input_dim": 2,
    "f2_output_dim": 2,
    "criterion": "MSE",
    "msg_freq": 100,
    "dt": 0.01,
    "dc_gain": false
}