{
    "input_variables": [
        "Ud",
        "Uq",
        "Vd",
        "Vq"
    ],
    "output_variables": [
        "Isd",
        "Isq"
    ],
    "a_0_0": [
        -0.11087546497583389,
        -0.15956813097000122
    ],
    "b_0_0": [
        0.12761075794696808,
        0.05567261204123497,
        0.006825974676758051
    ],
    "a_0_1": [
        -1.5579832792282104,
        0.8371485471725464
    ],
    "b_0_1": [
        0.20257678627967834,
        0.021694397553801537,
        -0.5187905430793762
    ],
    "a_1_0": [
        -0.679421603679657,
        0.26809048652648926
    ],
    "b_1_0": [
        0.12559986114501953,
        0.07681646943092346,
        -0.05822068825364113
    ],
    "a_1_1": [
        -1.3790462017059326,
        0.684313178062439
    ],
    "b_1_1": [
        0.17887791991233826,
        0.39617031812667847,
        0.5327264666557312
    ],
    "F1": {
        "n_in": 4,
        "n_hid": 20,
        "n_out": 2,
        "activation": "tanh",
        "net.0.weight": [
            [
                0.1129617914557457,
                0.4459812045097351,
                -0.6551469564437866,
                -1.1166653633117676
            ],
            [
                -0.020392853766679764,
                0.4420836567878723,
                -0.07897160202264786,
                -0.1320880800485611
            ],
            [
                0.1453135758638382,
                0.3102966845035553,
                -0.07661201804876328,
                -0.409811407327652
            ],
            [
                -0.3330230414867401,
                -0.7684886455535889,
                0.12276598811149597,
                0.47952911257743835
            ],
            [
                0.40939196944236755,
                0.3901752233505249,
                -0.19277916848659515,
                -0.0052488637156784534
            ],
            [
                0.44999873638153076,
                0.742542564868927,
                -0.04411560297012329,
                -0.4137350916862488
            ],
            [
                -0.09965150058269501,
                0.29376158118247986,
                0.2908497750759125,
                -0.48248156905174255
            ],
            [
                -0.15523743629455566,
                -0.5338774919509888,
                0.19117017090320587,
                1.0169669389724731
            ],
            [
                -0.13180357217788696,
                0.14528392255306244,
                -0.369545578956604,
                -0.8568154573440552
            ],
            [
                -0.08654352277517319,
                0.8256922364234924,
                0.24296987056732178,
                -0.32654377818107605
            ],
            [
                -0.04668273776769638,
                0.3798200488090515,
                -0.22810399532318115,
                -1.1758208274841309
            ],
            [
                -0.484919011592865,
                -0.03038730099797249,
                0.2953159213066101,
                0.09001198410987854
            ],
            [
                -0.11469147354364395,
                -0.35538676381111145,
                0.7132419347763062,
                0.3223263919353485
            ],
            [
                0.13127002120018005,
                0.5056677460670471,
                0.0636150985956192,
                -0.8676560521125793
            ],
            [
                0.05940013751387596,
                -0.23502156138420105,
                -0.3603156805038452,
                0.044493358582258224
            ],
            [
                0.2575877904891968,
                -0.14658339321613312,
                -0.04996625334024429,
                0.6384369134902954
            ],
            [
                0.26010018587112427,
                0.3538029193878174,
                -0.1981462836265564,
                -0.663061261177063
            ],
            [
                0.3447284698486328,
                0.8630576729774475,
                -0.6014278531074524,
                -1.1387064456939697
            ],
            [
                -0.03363877534866333,
                0.048305779695510864,
                0.3581112027168274,
                0.7509170174598694
            ],
            [
                -0.06925421953201294,
                -0.6405173540115356,
                0.03028787299990654,
                0.2557968199253082
            ]
        ],
        "net.0.bias": [
            -0.45785656571388245,
            0.38389310240745544,
            0.32094132900238037,
            -0.38055115938186646,
            0.08446813374757767,
            -0.1304684430360794,
            -0.13826683163642883,
            -0.06339886039495468,
            0.12550503015518188,
            -0.28402698040008545,
            -0.017554963007569313,
            0.23298713564872742,
            0.48212897777557373,
            0.051457300782203674,
            -0.3939971625804901,
            -0.26479455828666687,
            0.06692138314247131,
            0.012553911656141281,
            -0.33344706892967224,
            -0.25619709491729736
        ],
        "net.2.weight": [
            [
                0.4141010642051697,
                0.10358425974845886,
                -0.1247829720377922,
                -0.0943654477596283,
                -0.0794956386089325,
                0.125792995095253,
                -0.02898547425866127,
                -0.2111409604549408,
                0.15051135420799255,
                0.03554530069231987,
                0.26354601979255676,
                -0.037432655692100525,
                -0.3768388330936432,
                0.1720496267080307,
                0.24288776516914368,
                -0.1307392716407776,
                0.004873510915786028,
                0.7261397242546082,
                -0.0034267259761691093,
                0.041849132627248764
            ],
            [
                -0.08530034124851227,
                -0.008912747725844383,
                -0.16639085114002228,
                0.20535916090011597,
                -0.28245458006858826,
                -0.4301423132419586,
                -0.2414022833108902,
                0.29928767681121826,
                -0.15449488162994385,
                -0.28889915347099304,
                -0.6061336398124695,
                0.10619721561670303,
                0.007119974121451378,
                -0.34222498536109924,
                0.13137556612491608,
                0.06935876607894897,
                -0.35718655586242676,
                -1.2710148096084595,
                0.071828693151474,
                0.2171248495578766
            ]
        ],
        "net.2.bias": [
            0.15807616710662842,
            0.13455930352210999
        ]
    },
    "F2": {
        "n_in": 2,
        "n_hid": 20,
        "n_out": 2,
        "activation": "tanh",
        "net.0.weight": [
            [
                0.3055967092514038,
                0.35767507553100586
            ],
            [
                0.4063243567943573,
                -0.09417372941970825
            ],
            [
                -0.680531919002533,
                -0.7097882628440857
            ],
            [
                -0.4409692883491516,
                0.6403629183769226
            ],
            [
                0.9537672400474548,
                0.0364651121199131
            ],
            [
                -0.2666994631290436,
                0.07260067760944366
            ],
            [
                -0.7171065807342529,
                -0.41394853591918945
            ],
            [
                -0.24842844903469086,
                0.17019379138946533
            ],
            [
                -0.3778107762336731,
                0.3109883666038513
            ],
            [
                0.480751633644104,
                0.42034295201301575
            ],
            [
                -0.8607094883918762,
                -0.7163606882095337
            ],
            [
                -2.2982141971588135,
                0.7638492584228516
            ],
            [
                -0.016093814745545387,
                0.8507080078125
            ],
            [
                0.21601013839244843,
                0.19206319749355316
            ],
            [
                -0.3347633183002472,
                0.12152857333421707
            ],
            [
                1.065945029258728,
                -0.3951648473739624
            ],
            [
                0.14507833123207092,
                0.2081979215145111
            ],
            [
                -0.9316554665565491,
                -0.01974022015929222
            ],
            [
                1.3910568952560425,
                -0.6866820454597473
            ],
            [
                0.39276251196861267,
                0.45444637537002563
            ]
        ],
        "net.0.bias": [
            0.20805826783180237,
            0.01890554092824459,
            -0.605230987071991,
            0.3047940731048584,
            -0.4541841149330139,
            -0.24958188831806183,
            -0.31712454557418823,
            -0.13174842298030853,
            -0.056435488164424896,
            0.6413349509239197,
            0.16178743541240692,
            0.8392620086669922,
            0.4042661786079407,
            -0.48888519406318665,
            0.2678883969783783,
            -0.5150973796844482,
            -0.3535526692867279,
            0.17507880926132202,
            0.1955214887857437,
            0.596644401550293
        ],
        "net.2.weight": [
            [
                -0.04912940412759781,
                -0.026718229055404663,
                0.098424032330513,
                -0.17033061385154724,
                0.08456481248140335,
                -0.23681262135505676,
                0.013544871471822262,
                -0.09801173955202103,
                -0.22454595565795898,
                0.06406867504119873,
                0.265485942363739,
                -0.03525225818157196,
                -0.10558898001909256,
                -0.15301303565502167,
                -0.15180762112140656,
                0.04332932457327843,
                -0.17559917271137238,
                -0.034561071544885635,
                -0.1123933494091034,
                0.15400487184524536
            ],
            [
                -0.021249769255518913,
                -0.08597501367330551,
                0.19843930006027222,
                -0.08321289718151093,
                -0.08289774507284164,
                0.11255671828985214,
                0.35538941621780396,
                0.08382703363895416,
                -0.07065371423959732,
                -0.19166408479213715,
                -0.2985761761665344,
                0.22217205166816711,
                -0.19129687547683716,
                -0.16571137309074402,
                0.18803150951862335,
                -0.17828379571437836,
                0.007509294897317886,
                0.17522957921028137,
                0.0897473469376564,
                -0.2458803355693817
            ]
        ],
        "net.2.bias": [
            -0.12068461626768112,
            0.14159530401229858
        ]
    },
    "normfacs": {
        "Isd": {
            "offset": 3.4480528831481934,
            "scale": 43.27613830566406
        },
        "Isq": {
            "offset": 2.390915870666504,
            "scale": 28.00843620300293
        },
        "Ud": {
            "offset": 0.4747753143310547,
            "scale": 1.0
        },
        "Uq": {
            "offset": 8.098133275069586e-11,
            "scale": 0.4000000059604645
        },
        "Vd": {
            "offset": 143.28477478027344,
            "scale": 329.87640380859375
        },
        "Vq": {
            "offset": -2.0006730556488037,
            "scale": 158.86859130859375
        }
    },
    "dataset_class": "test_no_r",
    "dataset_name": "test_no_r",
    "model_name": "new_model_no_r",
    "optimizer_name": "Adam",
    "lr": 0.001,
    "eps": 0,
    "weight_decay": 0,
    "num_iter": 100,
    "batch_size": 128,
    "n_validation_pct": 0.2,
    "na": 2,
    "nb": 3,
    "nk": 0,
    "activation": "tanh",
    "f1_nodes": 20,
    "f2_nodes": 20,
    "f1_output_dim": 2,
    "f2_input_dim": 2,
    "f2_output_dim": 2,
    "criterion": "MSE",
    "msg_freq": 100,
    "dt": 0.01,
    "dc_gain": false
}