{
    "input_variables": [
        "Ud",
        "Uq",
        "V0",
        "Vd",
        "Vq"
    ],
    "output_variables": [
        "Is0",
        "Isd",
        "Isq"
    ],
    "a_0_0": [
        -0.33334773778915405,
        0.12314009666442871
    ],
    "b_0_0": [
        -0.018682032823562622,
        -0.043800756335258484,
        -0.017762115225195885
    ],
    "a_0_1": [
        0.10385488718748093,
        0.02147698402404785
    ],
    "b_0_1": [
        -0.35895398259162903,
        -0.12393790483474731,
        -0.04427419230341911
    ],
    "a_1_0": [
        0.004409422166645527,
        -0.3460923433303833
    ],
    "b_1_0": [
        -0.13114722073078156,
        0.08518465608358383,
        0.32269638776779175
    ],
    "a_1_1": [
        0.09797599166631699,
        0.06918716430664062
    ],
    "b_1_1": [
        0.090658038854599,
        0.09975796937942505,
        0.12491799145936966
    ],
    "F1": {
        "n_in": 5,
        "n_hid": 20,
        "n_out": 2,
        "activation": "tanh",
        "net.0.weight": [
            [
                -0.6302006840705872,
                0.31530413031578064,
                0.5354342460632324,
                -0.23406155407428741,
                -0.13505026698112488
            ],
            [
                -0.9383024573326111,
                -0.4305168092250824,
                -0.05564616248011589,
                -0.0015719174407422543,
                -0.00312035926617682
            ],
            [
                -0.9711193442344666,
                -0.503797173500061,
                0.5909391641616821,
                -0.09125759452581406,
                -0.020712988451123238
            ],
            [
                1.1777147054672241,
                0.0797278955578804,
                2.094698190689087,
                -0.14155176281929016,
                0.0071487282402813435
            ],
            [
                0.06149594485759735,
                1.2379313707351685,
                0.045877743512392044,
                0.0626433715224266,
                -0.006417963653802872
            ],
            [
                0.36839723587036133,
                1.1750006675720215,
                -2.3367340564727783,
                -0.050771333277225494,
                -0.004384170286357403
            ],
            [
                -1.4353216886520386,
                0.17239336669445038,
                0.16784463822841644,
                0.3039885461330414,
                -0.008325831964612007
            ],
            [
                -1.1771206855773926,
                0.2109648883342743,
                0.42377153038978577,
                0.13007619976997375,
                0.08070141822099686
            ],
            [
                -0.24227379262447357,
                -0.42489659786224365,
                -1.9707812070846558,
                -0.24901247024536133,
                -0.26817116141319275
            ],
            [
                -1.0572359561920166,
                0.702248215675354,
                -0.3903343975543976,
                -0.1518086940050125,
                -0.023689059540629387
            ],
            [
                0.8114525675773621,
                0.4834217429161072,
                -0.4202195405960083,
                0.009848854504525661,
                0.04247358441352844
            ],
            [
                1.2309716939926147,
                0.2668406665325165,
                -0.5379845499992371,
                -0.1180744543671608,
                -0.06221073865890503
            ],
            [
                -0.07034605741500854,
                1.0381194353103638,
                0.2825623154640198,
                0.024369385093450546,
                0.054803043603897095
            ],
            [
                -0.041337449103593826,
                -0.7425536513328552,
                -7.106503963470459,
                0.40536612272262573,
                2.3101887702941895
            ],
            [
                -0.21184217929840088,
                -0.7007198333740234,
                -0.10400526970624924,
                0.1781781166791916,
                0.13135336339473724
            ],
            [
                1.2130701541900635,
                0.21523672342300415,
                0.3600148558616638,
                -0.041562240570783615,
                0.015017560683190823
            ],
            [
                -0.9510418176651001,
                0.15997278690338135,
                0.2551051676273346,
                -0.1719912737607956,
                0.005675561260432005
            ],
            [
                0.3069436848163605,
                -0.2697422206401825,
                0.2351446896791458,
                0.1830415278673172,
                -0.21672117710113525
            ],
            [
                0.7293434143066406,
                0.15641020238399506,
                0.4592706561088562,
                0.12491977214813232,
                -0.1897445172071457
            ],
            [
                0.20914910733699799,
                0.029718369245529175,
                1.681490182876587,
                -0.3998194932937622,
                -0.18780206143856049
            ]
        ],
        "net.0.bias": [
            0.4327625632286072,
            0.1986323595046997,
            -0.4859655499458313,
            -0.5578439235687256,
            -0.49105551838874817,
            0.11124585568904877,
            -0.17850522696971893,
            -0.3998977243900299,
            0.2125033289194107,
            0.021172016859054565,
            -0.08183402568101883,
            0.4583350718021393,
            -0.4352463185787201,
            0.7796474099159241,
            0.49167630076408386,
            -0.3204303979873657,
            -0.36547255516052246,
            -0.15139567852020264,
            -0.09597818553447723,
            -0.09075690060853958
        ],
        "net.2.weight": [
            [
                -0.019403697922825813,
                -0.1623091995716095,
                -0.17897312343120575,
                0.15340474247932434,
                -0.2449713796377182,
                -0.3048741817474365,
                -0.22428204119205475,
                -0.1436668038368225,
                -0.10378950834274292,
                -0.43560904264450073,
                0.10420665144920349,
                0.15253883600234985,
                -0.17204920947551727,
                -0.6033380627632141,
                0.1582994908094406,
                0.2480718493461609,
                -0.1813398003578186,
                0.012612232007086277,
                0.09541979432106018,
                0.10790855437517166
            ],
            [
                0.28883376717567444,
                0.41206321120262146,
                0.5233708024024963,
                -0.2694852352142334,
                -0.3552853763103485,
                -0.43652018904685974,
                0.3693186044692993,
                0.15627539157867432,
                -0.03599996119737625,
                0.2774316966533661,
                -0.5114763975143433,
                -0.2415817826986313,
                -0.21797485649585724,
                0.40239250659942627,
                0.16189222037792206,
                -0.5466479659080505,
                0.3411861062049866,
                -0.15562704205513,
                -0.07304724305868149,
                -0.01325762365013361
            ]
        ],
        "net.2.bias": [
            0.07705063372850418,
            -0.09347476065158844
        ]
    },
    "F2": {
        "n_in": 2,
        "n_hid": 20,
        "n_out": 3,
        "activation": "tanh",
        "net.0.weight": [
            [
                -0.5863543748855591,
                -0.4661397933959961
            ],
            [
                -0.05078917741775513,
                0.3423292338848114
            ],
            [
                0.029511362314224243,
                0.26651209592819214
            ],
            [
                -0.19826044142246246,
                0.1937166154384613
            ],
            [
                -0.22439385950565338,
                -0.17489343881607056
            ],
            [
                0.5113970041275024,
                0.19844816625118256
            ],
            [
                0.21694399416446686,
                0.14966067671775818
            ],
            [
                -0.3630932867527008,
                -0.2610113322734833
            ],
            [
                0.20772026479244232,
                -0.6355483531951904
            ],
            [
                -0.10645683854818344,
                0.5827810168266296
            ],
            [
                0.5119367837905884,
                -0.04787522926926613
            ],
            [
                -0.4482474625110626,
                0.35120293498039246
            ],
            [
                -0.09277888387441635,
                -0.1238275095820427
            ],
            [
                -0.07321735471487045,
                -0.09060284495353699
            ],
            [
                0.25204718112945557,
                0.8859433531761169
            ],
            [
                -0.1171782836318016,
                0.5297737121582031
            ],
            [
                0.40726032853126526,
                -0.0820438340306282
            ],
            [
                0.2347176969051361,
                -0.5068808197975159
            ],
            [
                -0.09903459995985031,
                0.15023958683013916
            ],
            [
                0.4230501353740692,
                1.2239259481430054
            ]
        ],
        "net.0.bias": [
            -0.15743133425712585,
            0.03289029747247696,
            0.32343122363090515,
            -0.737404465675354,
            0.39946067333221436,
            -0.650458812713623,
            0.03119957633316517,
            -0.005413474980741739,
            -0.4147169291973114,
            0.021970411762595177,
            0.4826045632362366,
            -0.14114679396152496,
            -0.44594940543174744,
            -0.3081967234611511,
            -0.6684684157371521,
            0.2222720831632614,
            -0.3701258599758148,
            -0.35234716534614563,
            -0.4358668327331543,
            0.3076927661895752
        ],
        "net.2.weight": [
            [
                0.18800126016139984,
                0.16902317106723785,
                0.15232537686824799,
                -0.14993183314800262,
                -0.027237242087721825,
                0.06127979978919029,
                0.42464566230773926,
                -0.08836851269006729,
                -0.15592741966247559,
                -0.05094248801469803,
                -0.1431209295988083,
                -0.020694375038146973,
                -0.21330563724040985,
                -0.2975224256515503,
                0.21959750354290009,
                -0.10314101725816727,
                -7.363894837908447e-05,
                0.022005632519721985,
                -0.08366045355796814,
                -0.20193223655223846
            ],
            [
                -0.1087576150894165,
                0.014581600204110146,
                0.01280971895903349,
                0.10581502318382263,
                -0.04667012020945549,
                0.04156837239861488,
                -0.02773481048643589,
                -0.02039944753050804,
                -0.07857127487659454,
                0.007893838919699192,
                0.03465990722179413,
                -0.02481362782418728,
                -0.03859684243798256,
                -0.10242511332035065,
                0.06371508538722992,
                -0.07019596546888351,
                0.04925378039479256,
                -0.03158200532197952,
                -0.07399768382310867,
                0.02647111751139164
            ],
            [
                -0.06661123037338257,
                -0.0817205160856247,
                -0.017023146152496338,
                -0.0683613270521164,
                -0.026787152513861656,
                0.07654039561748505,
                0.03706875443458557,
                -0.04012209549546242,
                -0.09106171876192093,
                -0.042974457144737244,
                0.031486645340919495,
                -0.012312380596995354,
                0.11541403084993362,
                0.16777236759662628,
                -0.060800474137067795,
                -0.02534518763422966,
                0.06588774919509888,
                0.023347925394773483,
                0.03912630304694176,
                0.014408978633582592
            ]
        ],
        "net.2.bias": [
            -0.08851296454668045,
            0.01942376233637333,
            0.09281428158283234
        ]
    },
    "normfacs": {
        "Is0": {
            "offset": -2.281857526113026e-16,
            "scale": 4.50010390279712e-13
        },
        "Isd": {
            "offset": 3.4480528831481934,
            "scale": 43.27613830566406
        },
        "Isq": {
            "offset": 2.390915870666504,
            "scale": 28.00843620300293
        },
        "Ud": {
            "offset": 0.4747753143310547,
            "scale": 1.0
        },
        "Uq": {
            "offset": 8.098133275069586e-11,
            "scale": 0.4000000059604645
        },
        "V0": {
            "offset": 7.438170630640062e-13,
            "scale": 5.115907697472721e-10
        },
        "Vd": {
            "offset": 143.28477478027344,
            "scale": 329.87640380859375
        },
        "Vq": {
            "offset": -2.0006730556488037,
            "scale": 158.86859130859375
        }
    },
    "dataset_class": "test_full",
    "dataset_name": "test_full",
    "model_name": "model_full",
    "optimizer_name": "Adam",
    "lr": 0.001,
    "eps": 0,
    "weight_decay": 0,
    "num_iter": 200,
    "batch_size": 128,
    "n_validation_pct": 0.2,
    "na": 2,
    "nb": 3,
    "nk": 0,
    "activation": "tanh",
    "f1_nodes": 20,
    "f2_nodes": 20,
    "f1_output_dim": 2,
    "f2_input_dim": 2,
    "f2_output_dim": 3,
    "criterion": "MSE",
    "msg_freq": 100,
    "dt": 0.01,
    "dc_gain": false,
    "sensitivity": true
}