{
    "input_variables": [
        "Ra",
        "Rb",
        "Rc",
        "Ud",
        "Uq",
        "Vd",
        "Vq"
    ],
    "output_variables": [
        "Isd",
        "Isq"
    ],
    "b_0_0": [
        0.4602181911468506,
        0.2058841586112976,
        0.10666017979383469
    ],
    "b_0_1": [
        0.008178045973181725,
        0.31680354475975037,
        0.6529566049575806
    ],
    "b_1_0": [
        0.006638281513005495,
        0.09659740328788757,
        0.0719560980796814
    ],
    "b_1_1": [
        0.049403492361307144,
        0.3628247380256653,
        0.7072613835334778
    ],
    "F1": {
        "n_in": 7,
        "n_hid": 20,
        "n_out": 2,
        "activation": "tanh",
        "net.0.weight": [
            [
                0.5549712181091309,
                0.22461870312690735,
                0.24671903252601624,
                0.010206100530922413,
                0.5558345317840576,
                0.17904427647590637,
                0.2100716531276703
            ],
            [
                0.35314130783081055,
                -0.0004443297511897981,
                0.15347270667552948,
                -0.02223627269268036,
                -0.26875171065330505,
                -0.10885035246610641,
                0.3363751471042633
            ],
            [
                -0.11888071894645691,
                0.0423518642783165,
                0.18634851276874542,
                -0.019414013251662254,
                0.23177745938301086,
                -0.6491596698760986,
                -0.20224693417549133
            ],
            [
                0.21240894496440887,
                -0.06275324523448944,
                0.18138714134693146,
                -0.056529637426137924,
                0.37812361121177673,
                0.09253398329019547,
                -0.9539449214935303
            ],
            [
                -0.4232152998447418,
                -0.08818390220403671,
                -0.33260342478752136,
                0.5674334168434143,
                0.48190903663635254,
                -0.23565368354320526,
                -0.5795660614967346
            ],
            [
                -0.426569402217865,
                -0.0523650124669075,
                0.252314031124115,
                0.3198644816875458,
                0.5136154294013977,
                -0.03568846359848976,
                -0.7559178471565247
            ],
            [
                -0.18168343603610992,
                -0.06302233040332794,
                -0.518731415271759,
                -0.22589552402496338,
                -0.09769309312105179,
                0.3647708296775818,
                -0.0751950591802597
            ],
            [
                0.17373360693454742,
                0.09812259674072266,
                0.5631204843521118,
                -0.10618966817855835,
                -0.42285653948783875,
                0.1274624764919281,
                -0.18675221502780914
            ],
            [
                0.18656374514102936,
                -0.06863962858915329,
                -0.1458296924829483,
                -0.36286115646362305,
                -0.397481769323349,
                0.14930540323257446,
                -0.06714163720607758
            ],
            [
                -0.1166735514998436,
                0.008824704214930534,
                -0.2785642147064209,
                0.044571030884981155,
                0.4098924696445465,
                0.0700707957148552,
                -0.20938435196876526
            ],
            [
                -0.41650500893592834,
                -0.11405215412378311,
                0.02330625243484974,
                0.18846870958805084,
                0.7240988612174988,
                0.015560073778033257,
                -0.3854798972606659
            ],
            [
                -0.2234533280134201,
                0.059484366327524185,
                -0.13123907148838043,
                -0.2018430083990097,
                0.832731306552887,
                0.11334384232759476,
                -0.9856718182563782
            ],
            [
                -0.060893263667821884,
                -0.11520938575267792,
                -0.1938357800245285,
                0.02285701036453247,
                -0.20556510984897614,
                0.2318384349346161,
                0.6425655484199524
            ],
            [
                0.1343207210302353,
                0.05915321782231331,
                0.08450623601675034,
                -0.39309433102607727,
                -0.4959844946861267,
                0.46913212537765503,
                0.7113099098205566
            ],
            [
                -0.12140542268753052,
                -0.03467796370387077,
                0.5290137529373169,
                0.15025284886360168,
                -0.48064154386520386,
                -0.08400308340787888,
                -0.011017541401088238
            ],
            [
                -0.12792155146598816,
                -0.08847522735595703,
                -0.4126739501953125,
                0.04095521569252014,
                -0.1469232589006424,
                0.214883491396904,
                0.9654551148414612
            ],
            [
                -0.20731639862060547,
                0.08060058951377869,
                0.2817092835903168,
                -0.5046269297599792,
                -0.4490676820278168,
                0.039604268968105316,
                0.5756039023399353
            ],
            [
                -0.15376685559749603,
                -0.0747145488858223,
                -0.2207687944173813,
                0.10035838186740875,
                0.16945511102676392,
                -0.41844552755355835,
                -1.199440598487854
            ],
            [
                0.03489353135228157,
                -0.08222167193889618,
                -0.0027150444220751524,
                -0.1645200252532959,
                -0.24770793318748474,
                0.4842054545879364,
                0.4339017868041992
            ],
            [
                -0.01925744116306305,
                0.14622995257377625,
                -0.03871531039476395,
                -0.283404678106308,
                -0.4342010021209717,
                -0.057706207036972046,
                0.37813079357147217
            ]
        ],
        "net.0.bias": [
            0.27002447843551636,
            0.31147125363349915,
            0.3532739579677582,
            0.1930876225233078,
            -0.613521158695221,
            -0.19463664293289185,
            -0.4884781241416931,
            0.19744552671909332,
            -0.297292023897171,
            -0.3755335211753845,
            -0.4988705813884735,
            -0.7224965691566467,
            -0.08592195063829422,
            0.44260919094085693,
            0.368729829788208,
            -0.5605671405792236,
            0.2814938426017761,
            -0.7601418495178223,
            -0.16394266486167908,
            -0.23912747204303741
        ],
        "net.2.weight": [
            [
                -0.20481422543525696,
                -0.13136108219623566,
                -0.01110019814223051,
                0.012269794009625912,
                -0.4125896692276001,
                0.14648914337158203,
                0.3205466866493225,
                0.6236599683761597,
                -0.11399369686841965,
                0.11609846353530884,
                0.28606656193733215,
                -0.2502051889896393,
                -0.0740770548582077,
                0.0721924677491188,
                -0.4292334318161011,
                0.2908458411693573,
                -0.06171831488609314,
                -0.3388242721557617,
                -0.06171553581953049,
                -0.06818079203367233
            ],
            [
                -0.021173877641558647,
                -0.09413373470306396,
                0.2515232563018799,
                0.4536724090576172,
                0.18258990347385406,
                0.32999387383461,
                -0.41464462876319885,
                -0.0793418139219284,
                -0.26776695251464844,
                0.15216369926929474,
                0.3024546802043915,
                0.3323364555835724,
                -0.3407023251056671,
                -0.13380828499794006,
                -0.1357228308916092,
                -0.26855629682540894,
                -0.2879774570465088,
                0.11237314343452454,
                -0.34707334637641907,
                -0.163697749376297
            ]
        ],
        "net.2.bias": [
            0.025970742106437683,
            0.19798359274864197
        ]
    },
    "F2": {
        "n_in": 2,
        "n_hid": 20,
        "n_out": 2,
        "activation": "tanh",
        "net.0.weight": [
            [
                -0.28694596886634827,
                0.1278698742389679
            ],
            [
                0.7569220066070557,
                -0.7296121716499329
            ],
            [
                0.9097225069999695,
                -0.7011165618896484
            ],
            [
                0.10077221691608429,
                -0.9136660695075989
            ],
            [
                -0.2103946954011917,
                -0.11615420877933502
            ],
            [
                0.7243905663490295,
                -0.2943421006202698
            ],
            [
                -0.2695547640323639,
                -0.28269559144973755
            ],
            [
                -1.054450273513794,
                0.4572865962982178
            ],
            [
                0.1294928342103958,
                -0.7071046829223633
            ],
            [
                -1.0097475051879883,
                0.24534972012043
            ],
            [
                -0.6538742780685425,
                1.8139870166778564
            ],
            [
                0.6035803556442261,
                -0.36338651180267334
            ],
            [
                -0.3451113998889923,
                0.5633477568626404
            ],
            [
                1.4527488946914673,
                0.020292213186621666
            ],
            [
                -0.32298243045806885,
                -0.8500195741653442
            ],
            [
                -1.2083823680877686,
                -0.3849863111972809
            ],
            [
                -0.4657020568847656,
                -1.0297240018844604
            ],
            [
                1.2159727811813354,
                -0.302369087934494
            ],
            [
                -0.1734648048877716,
                0.7454835772514343
            ],
            [
                -0.08428257703781128,
                -0.15737950801849365
            ]
        ],
        "net.0.bias": [
            -0.5170856714248657,
            0.5420230031013489,
            0.12734860181808472,
            0.5603483319282532,
            -0.2968439757823944,
            0.16983331739902496,
            -0.21064618229866028,
            0.03643646091222763,
            -0.38419413566589355,
            0.3018219470977783,
            0.23809276521205902,
            -0.058757200837135315,
            -0.12413270026445389,
            -0.6076456308364868,
            0.4984419345855713,
            -0.584456205368042,
            0.2577309310436249,
            -0.3140408396720886,
            -0.30211544036865234,
            0.17599014937877655
        ],
        "net.2.weight": [
            [
                -0.12003669887781143,
                0.013465209864079952,
                -0.17260484397411346,
                -0.25320202112197876,
                0.0012626763200387359,
                0.06290716677904129,
                0.014377325773239136,
                0.07215221971273422,
                -0.18760563433170319,
                0.008332117460668087,
                -0.05799262225627899,
                -0.22645142674446106,
                0.25842753052711487,
                0.2139682024717331,
                -0.22077316045761108,
                -0.0191180557012558,
                0.01611197553575039,
                -0.01472970936447382,
                0.1098189726471901,
                -0.0014410653384402394
            ],
            [
                -0.12073328346014023,
                0.05565452203154564,
                0.36019036173820496,
                0.17271463572978973,
                0.1865890473127365,
                0.0618300661444664,
                0.17219391465187073,
                -0.53392493724823,
                -0.14855553209781647,
                -0.33109423518180847,
                0.34892627596855164,
                0.413582444190979,
                -0.18527507781982422,
                0.27393436431884766,
                0.11631154268980026,
                0.31276604533195496,
                0.2015823870897293,
                0.3324199616909027,
                -0.0344197154045105,
                -0.09072258323431015
            ]
        ],
        "net.2.bias": [
            0.1919761449098587,
            0.06178424134850502
        ]
    },
    "normfacs": {
        "Isd": {
            "offset": 3.4480528831481934,
            "scale": 43.27613830566406
        },
        "Isq": {
            "offset": 2.390915870666504,
            "scale": 28.00843620300293
        },
        "Ra": {
            "offset": 49.49588394165039,
            "scale": 51.999977111816406
        },
        "Rb": {
            "offset": 54.747947692871094,
            "scale": 51.999977111816406
        },
        "Rc": {
            "offset": 49.49588394165039,
            "scale": 51.999977111816406
        },
        "Ud": {
            "offset": 0.4747753143310547,
            "scale": 1.0
        },
        "Uq": {
            "offset": 8.098133275069586e-11,
            "scale": 0.4000000059604645
        },
        "Vd": {
            "offset": 143.28477478027344,
            "scale": 329.87640380859375
        },
        "Vq": {
            "offset": -2.0006730556488037,
            "scale": 158.86859130859375
        }
    },
    "dataset_class": "test",
    "dataset_name": "test",
    "model_name": "new_model_test_2",
    "optimizer_name": "Adam",
    "lr": 0.001,
    "eps": 0,
    "weight_decay": 0,
    "num_iter": 200,
    "batch_size": 128,
    "n_validation_pct": 0.2,
    "na": 2,
    "nb": 3,
    "nk": 0,
    "activation": "tanh",
    "f1_nodes": 20,
    "f2_nodes": 20,
    "f1_output_dim": 2,
    "f2_input_dim": 2,
    "f2_output_dim": 2,
    "criterion": "MSE",
    "msg_freq": 100,
    "dt": 0.01,
    "dc_gain": false
}