{
    "input_variables": [
        "Ud",
        "Uq",
        "Vd",
        "Vq"
    ],
    "output_variables": [
        "Isd",
        "Isq"
    ],
    "a_0_0": [
        -1.015437126159668,
        0.3657327890396118
    ],
    "b_0_0": [
        0.7133632302284241,
        0.6427955031394958,
        0.0706353634595871
    ],
    "a_0_1": [
        -1.4348337650299072,
        0.8486413955688477
    ],
    "b_0_1": [
        0.2808784544467926,
        0.12839004397392273,
        -0.46956756711006165
    ],
    "a_1_0": [
        -1.0741983652114868,
        0.5026991367340088
    ],
    "b_1_0": [
        0.19666369259357452,
        0.31869661808013916,
        0.004074535798281431
    ],
    "a_1_1": [
        -1.384852647781372,
        0.6823798418045044
    ],
    "b_1_1": [
        0.31502649188041687,
        0.42443403601646423,
        0.6989787220954895
    ],
    "F1": {
        "n_in": 4,
        "n_hid": 20,
        "n_out": 2,
        "activation": "tanh",
        "net.0.weight": [
            [
                0.5537512898445129,
                0.24232788383960724,
                -0.6188954710960388,
                -1.5150833129882812
            ],
            [
                0.08230243623256683,
                1.077078104019165,
                -0.3914846181869507,
                -0.06721986085176468
            ],
            [
                0.019642222672700882,
                0.2443525642156601,
                -0.06205388903617859,
                -0.5868951082229614
            ],
            [
                -0.47038763761520386,
                -0.9541951417922974,
                0.23115921020507812,
                0.38491278886795044
            ],
            [
                0.3813247084617615,
                0.40924668312072754,
                -0.2701074779033661,
                0.002208846854045987
            ],
            [
                0.41247886419296265,
                0.7659895420074463,
                -0.11319921910762787,
                -0.42109739780426025
            ],
            [
                -0.15791022777557373,
                0.3599422872066498,
                0.30475595593452454,
                -0.4922280013561249
            ],
            [
                -0.2438563108444214,
                -0.5932614207267761,
                0.17767225205898285,
                1.0023106336593628
            ],
            [
                -0.07493489980697632,
                0.11743343621492386,
                -0.41228267550468445,
                -0.8840996026992798
            ],
            [
                -0.15643739700317383,
                0.9856414198875427,
                0.2733362019062042,
                -0.38849785923957825
            ],
            [
                -0.03566808998584747,
                0.4342724680900574,
                -0.21482807397842407,
                -1.1906787157058716
            ],
            [
                -0.7133477330207825,
                -0.12493433803319931,
                0.33704400062561035,
                -0.02158617228269577
            ],
            [
                -0.45282092690467834,
                -0.07788258045911789,
                0.7564936280250549,
                0.49849605560302734
            ],
            [
                0.19567181169986725,
                0.5466902256011963,
                0.05127036198973656,
                -0.8706567883491516
            ],
            [
                0.30193614959716797,
                -0.1399293690919876,
                -0.3325721323490143,
                0.19014154374599457
            ],
            [
                0.09673396497964859,
                -0.039710842072963715,
                -0.09827809780836105,
                0.6957650780677795
            ],
            [
                0.2509966790676117,
                0.39671316742897034,
                -0.20477378368377686,
                -0.6866587400436401
            ],
            [
                0.41715362668037415,
                0.9023298621177673,
                -0.6232388019561768,
                -1.1291871070861816
            ],
            [
                -0.19893845915794373,
                0.11299777776002884,
                0.18123747408390045,
                0.9328210949897766
            ],
            [
                -0.056213364005088806,
                -0.6026986837387085,
                0.02414904721081257,
                0.3128916621208191
            ]
        ],
        "net.0.bias": [
            -0.5050141215324402,
            0.47519972920417786,
            0.30840054154396057,
            -0.42033928632736206,
            0.0869666039943695,
            -0.11937528103590012,
            -0.12968888878822327,
            -0.0652739480137825,
            0.1059083342552185,
            -0.3157932758331299,
            0.007442518137395382,
            0.17614614963531494,
            0.5090620517730713,
            0.04976089298725128,
            -0.37010669708251953,
            -0.2653121054172516,
            0.07001560181379318,
            0.025605546310544014,
            -0.3363748788833618,
            -0.23820890486240387
        ],
        "net.2.weight": [
            [
                0.49729791283607483,
                0.28513357043266296,
                -0.11142463982105255,
                -0.30296728014945984,
                0.19965967535972595,
                0.2152702659368515,
                -0.08367201685905457,
                -0.19262312352657318,
                0.08046417683362961,
                -0.18484123051166534,
                0.11460020393133163,
                -0.25858989357948303,
                -0.35557013750076294,
                0.19730158150196075,
                0.241372212767601,
                -0.04590855911374092,
                0.14376039803028107,
                1.039676547050476,
                -0.004065319430083036,
                -0.07229958474636078
            ],
            [
                -0.06763417273759842,
                -0.0051848324947059155,
                -0.1723969280719757,
                0.19063757359981537,
                -0.2614351809024811,
                -0.44125813245773315,
                -0.2623286247253418,
                0.39614856243133545,
                -0.19897602498531342,
                -0.34270304441452026,
                -0.6727091670036316,
                0.09729409962892532,
                0.03369005396962166,
                -0.4274040758609772,
                0.1321258693933487,
                0.10492878407239914,
                -0.38312700390815735,
                -1.4817674160003662,
                0.1002483069896698,
                0.21572205424308777
            ]
        ],
        "net.2.bias": [
            0.16970551013946533,
            0.13577933609485626
        ]
    },
    "F2": {
        "n_in": 2,
        "n_hid": 20,
        "n_out": 2,
        "activation": "tanh",
        "net.0.weight": [
            [
                0.40704479813575745,
                0.36821413040161133
            ],
            [
                0.3847200572490692,
                0.003962488379329443
            ],
            [
                -0.6547947525978088,
                -0.8969462513923645
            ],
            [
                -0.07965885102748871,
                0.3322964906692505
            ],
            [
                1.0808786153793335,
                0.15095119178295135
            ],
            [
                -0.26677316427230835,
                0.00667820917442441
            ],
            [
                -0.7211589813232422,
                -0.5276540517807007
            ],
            [
                -0.2322438359260559,
                0.05285470187664032
            ],
            [
                -0.28004685044288635,
                0.12298984825611115
            ],
            [
                0.509857714176178,
                0.5193811058998108
            ],
            [
                -0.5971007347106934,
                -0.6543896794319153
            ],
            [
                -2.8331992626190186,
                1.3559679985046387
            ],
            [
                0.23816700279712677,
                0.7019210457801819
            ],
            [
                0.29181379079818726,
                0.13839581608772278
            ],
            [
                -0.40235528349876404,
                0.07026910781860352
            ],
            [
                1.0065845251083374,
                -0.09890038520097733
            ],
            [
                0.09561000019311905,
                0.11231837421655655
            ],
            [
                -0.9882293343544006,
                -0.13977746665477753
            ],
            [
                2.679927349090576,
                -0.33914703130722046
            ],
            [
                0.4813272953033447,
                0.49176451563835144
            ]
        ],
        "net.0.bias": [
            0.1888374239206314,
            0.004304301925003529,
            -0.6417674422264099,
            0.3342845141887665,
            -0.4826364517211914,
            -0.2356071174144745,
            -0.3024793863296509,
            -0.10137363523244858,
            -0.05356249213218689,
            0.6131583452224731,
            0.17517554759979248,
            0.5913459658622742,
            0.4678642451763153,
            -0.4818401634693146,
            0.2708542048931122,
            -0.6058681011199951,
            -0.33949387073516846,
            0.2092345505952835,
            0.16555792093276978,
            0.5695384740829468
        ],
        "net.2.weight": [
            [
                -0.06139785423874855,
                0.046843644231557846,
                0.1373945027589798,
                -0.13300655782222748,
                0.06830144673585892,
                -0.23917341232299805,
                0.0347006730735302,
                -0.09993986785411835,
                -0.17606112360954285,
                0.032435376197099686,
                0.11563895642757416,
                0.0027870507910847664,
                -0.08389689028263092,
                -0.15498632192611694,
                -0.15344998240470886,
                0.027216648682951927,
                -0.175808846950531,
                -0.014970970340073109,
                -0.005568393971771002,
                0.1210407242178917
            ],
            [
                -0.0754050612449646,
                -0.127670556306839,
                0.25474295020103455,
                -0.08243417739868164,
                -0.13788147270679474,
                0.10703554004430771,
                0.413833349943161,
                0.07012622803449631,
                -0.0804012268781662,
                -0.21029701828956604,
                -0.29868143796920776,
                0.16504275798797607,
                -0.20937812328338623,
                -0.17288272082805634,
                0.19846828281879425,
                -0.2049732506275177,
                -0.003061495488509536,
                0.22285522520542145,
                0.34853458404541016,
                -0.26558297872543335
            ]
        ],
        "net.2.bias": [
            -0.11497356742620468,
            0.14454959332942963
        ]
    },
    "normfacs": {
        "Isd": {
            "offset": 3.4480528831481934,
            "scale": 43.27613830566406
        },
        "Isq": {
            "offset": 2.390915870666504,
            "scale": 28.00843620300293
        },
        "Ud": {
            "offset": 0.4747753143310547,
            "scale": 1.0
        },
        "Uq": {
            "offset": 8.098133275069586e-11,
            "scale": 0.4000000059604645
        },
        "Vd": {
            "offset": 143.28477478027344,
            "scale": 329.87640380859375
        },
        "Vq": {
            "offset": -2.0006730556488037,
            "scale": 158.86859130859375
        }
    },
    "dataset_class": "test_no_r",
    "dataset_name": "test_no_r",
    "model_name": "new_model_no_r_2",
    "optimizer_name": "Adam",
    "lr": 0.001,
    "eps": 0,
    "weight_decay": 0,
    "num_iter": 300,
    "batch_size": 128,
    "n_validation_pct": 0.2,
    "na": 2,
    "nb": 3,
    "nk": 0,
    "activation": "tanh",
    "f1_nodes": 20,
    "f2_nodes": 20,
    "f1_output_dim": 2,
    "f2_input_dim": 2,
    "f2_output_dim": 2,
    "criterion": "MSE",
    "msg_freq": 100,
    "dt": 0.01,
    "dc_gain": false
}