{
    "input_variables": [
        "Ud",
        "Uq",
        "Vd",
        "Vq"
    ],
    "output_variables": [
        "Isd",
        "Isq"
    ],
    "a_0_0": [
        -0.09218064695596695,
        -0.25553619861602783
    ],
    "b_0_0": [
        0.10615593940019608,
        0.24078084528446198,
        0.3331787884235382
    ],
    "a_0_1": [
        -0.4068125784397125,
        0.25083231925964355
    ],
    "b_0_1": [
        -0.35794898867607117,
        -0.2676571011543274,
        -0.10005823522806168
    ],
    "a_1_0": [
        -0.4715876281261444,
        0.2509324550628662
    ],
    "b_1_0": [
        -0.15804487466812134,
        -0.20167246460914612,
        -0.09964018315076828
    ],
    "a_1_1": [
        -0.19495102763175964,
        -0.24884891510009766
    ],
    "b_1_1": [
        0.20504260063171387,
        0.33928462862968445,
        0.703991711139679
    ],
    "F1": {
        "n_in": 4,
        "n_hid": 20,
        "n_out": 2,
        "activation": "tanh",
        "net.0.weight": [
            [
                0.6919866800308228,
                1.9958231449127197,
                -0.5841332077980042,
                -2.966909170150757
            ],
            [
                -0.13891392946243286,
                0.24429260194301605,
                -0.3691692650318146,
                0.009707706049084663
            ],
            [
                0.822003185749054,
                -0.047222137451171875,
                0.3949088752269745,
                0.019698986783623695
            ],
            [
                -1.0793254375457764,
                0.019252201542258263,
                -0.6026026010513306,
                -0.071825310587883
            ],
            [
                -0.19246552884578705,
                -0.5562299489974976,
                0.016520287841558456,
                0.0988713949918747
            ],
            [
                0.25178226828575134,
                -0.024452410638332367,
                0.12888075411319733,
                0.3221019506454468
            ],
            [
                -0.3045012056827545,
                -0.27137690782546997,
                0.4008869230747223,
                -0.11236435174942017
            ],
            [
                -0.30285051465034485,
                -1.3654941320419312,
                0.48129379749298096,
                2.408339023590088
            ],
            [
                -0.4676460325717926,
                -0.1530853509902954,
                -0.2647293210029602,
                -0.35586705803871155
            ],
            [
                -0.1322668045759201,
                -0.29614579677581787,
                0.41124287247657776,
                0.24474751949310303
            ],
            [
                0.00828490313142538,
                -0.36540675163269043,
                0.3176853060722351,
                -0.3646530210971832
            ],
            [
                0.0440792553126812,
                0.07961331307888031,
                -0.05699403956532478,
                0.2519046664237976
            ],
            [
                -0.025270778685808182,
                -0.9429978132247925,
                0.7646361589431763,
                1.954128623008728
            ],
            [
                0.016267387196421623,
                0.6983856558799744,
                -0.1249639242887497,
                -0.2596825957298279
            ],
            [
                -0.08477603644132614,
                0.01511342078447342,
                -0.6193254590034485,
                -0.28228387236595154
            ],
            [
                -0.05618460476398468,
                -0.5371854305267334,
                0.30259010195732117,
                0.22334758937358856
            ],
            [
                1.010490894317627,
                0.3092970550060272,
                -0.014300473034381866,
                0.06196970492601395
            ],
            [
                0.93252032995224,
                0.026975886896252632,
                0.002270741621032357,
                -0.04254312813282013
            ],
            [
                0.28636065125465393,
                0.8781814575195312,
                0.22821791470050812,
                0.3584078252315521
            ],
            [
                -0.11094506084918976,
                0.12031848728656769,
                -0.27311673760414124,
                -0.2402651309967041
            ]
        ],
        "net.0.bias": [
            -0.15653438866138458,
            0.5729182362556458,
            0.6815625429153442,
            -0.889938473701477,
            -0.1132795587182045,
            0.03904655575752258,
            -0.2148246467113495,
            0.13524095714092255,
            0.18270552158355713,
            -0.2767115533351898,
            -0.009790627285838127,
            0.3294297158718109,
            0.2322504073381424,
            0.18256379663944244,
            -0.5111292004585266,
            -0.42871740460395813,
            -0.15145379304885864,
            0.27724936604499817,
            -0.36537057161331177,
            -0.3136628270149231
        ],
        "net.2.weight": [
            [
                0.7387487888336182,
                0.26074865460395813,
                0.20400594174861908,
                -0.4590610861778259,
                -0.22543174028396606,
                0.1744757741689682,
                -0.2823485732078552,
                -0.2822481393814087,
                -0.09690628945827484,
                -0.11890906095504761,
                -0.12183243781328201,
                0.17114058136940002,
                -0.1291618049144745,
                0.3711070418357849,
                0.07371006160974503,
                -0.2654457092285156,
                0.5632997751235962,
                0.38277819752693176,
                0.24960727989673615,
                -0.08918595314025879
            ],
            [
                1.4198169708251953,
                0.09420780837535858,
                -0.0704774335026741,
                0.3530272841453552,
                -0.3661394417285919,
                -0.06260683387517929,
                -0.20187294483184814,
                -0.7858434319496155,
                -0.03704259544610977,
                -0.22906477749347687,
                -0.1215876042842865,
                0.07018623501062393,
                -0.4593508541584015,
                0.2724279463291168,
                0.1944970339536667,
                -0.21994414925575256,
                0.12523537874221802,
                -0.0016061823116615415,
                -0.05180976539850235,
                0.15421485900878906
            ]
        ],
        "net.2.bias": [
            0.36163920164108276,
            0.0635724738240242
        ]
    },
    "F2": {
        "n_in": 2,
        "n_hid": 20,
        "n_out": 2,
        "activation": "tanh",
        "net.0.weight": [
            [
                0.27899402379989624,
                0.10277214646339417
            ],
            [
                0.5066426396369934,
                0.37313607335090637
            ],
            [
                0.08700158447027206,
                -0.22681888937950134
            ],
            [
                -0.5765368938446045,
                0.2355801910161972
            ],
            [
                0.777996838092804,
                0.7606176733970642
            ],
            [
                -0.7788214087486267,
                0.08747557550668716
            ],
            [
                -0.5947984457015991,
                -0.683125376701355
            ],
            [
                -0.6953242421150208,
                0.19861751794815063
            ],
            [
                -0.49589863419532776,
                0.1754554659128189
            ],
            [
                0.07274593412876129,
                0.7793709635734558
            ],
            [
                -0.5064882636070251,
                -0.3789616823196411
            ],
            [
                -1.0081404447555542,
                0.514390766620636
            ],
            [
                0.0012322337133809924,
                1.0069198608398438
            ],
            [
                0.18070843815803528,
                -0.09393519163131714
            ],
            [
                -0.21020250022411346,
                -0.31679612398147583
            ],
            [
                0.372263640165329,
                -0.2335115373134613
            ],
            [
                -0.19525307416915894,
                0.16277791559696198
            ],
            [
                -0.7090134024620056,
                -0.44089582562446594
            ],
            [
                0.6329724192619324,
                -0.48740968108177185
            ],
            [
                0.18782764673233032,
                1.222647786140442
            ]
        ],
        "net.0.bias": [
            -0.0660233125090599,
            -0.040699418634176254,
            -0.5627316236495972,
            0.3789186179637909,
            -0.4017626643180847,
            -0.2541567087173462,
            -0.34510427713394165,
            -0.04460851103067398,
            -0.06195645406842232,
            0.4651707112789154,
            0.1737569272518158,
            0.6573851108551025,
            0.26649418473243713,
            -0.44720035791397095,
            0.2139883190393448,
            -0.40048861503601074,
            -0.3849696218967438,
            0.3951513469219208,
            0.2538642883300781,
            0.36283427476882935
        ],
        "net.2.weight": [
            [
                0.008705892600119114,
                0.21600650250911713,
                -0.05483291298151016,
                -0.11831951141357422,
                0.30746203660964966,
                -0.14683517813682556,
                -0.4111696183681488,
                -0.025463847443461418,
                -0.15332548320293427,
                0.06332454085350037,
                -0.0923193022608757,
                0.03917880728840828,
                -0.09771814197301865,
                0.003127140924334526,
                -0.11726914346218109,
                0.02169724553823471,
                -0.10329882055521011,
                -0.07014002650976181,
                -0.11414843797683716,
                0.08697698265314102
            ],
            [
                -0.0042351484298706055,
                0.1960819512605667,
                0.1580922156572342,
                0.11625368893146515,
                -0.05423466116189957,
                0.18015876412391663,
                -0.13188669085502625,
                0.16486535966396332,
                0.002852979116141796,
                -0.08685801923274994,
                -0.30650272965431213,
                0.2092394232749939,
                -0.1521470844745636,
                0.026381775736808777,
                0.1029152199625969,
                -0.0588567741215229,
                0.060572247952222824,
                -0.008804049342870712,
                0.021918918937444687,
                -0.37572720646858215
            ]
        ],
        "net.2.bias": [
            -0.13839074969291687,
            0.06050242856144905
        ]
    },
    "normfacs": {
        "Isd": {
            "offset": 3.4480528831481934,
            "scale": 43.27613830566406
        },
        "Isq": {
            "offset": 2.390915870666504,
            "scale": 28.00843620300293
        },
        "Ud": {
            "offset": 0.4747753143310547,
            "scale": 1.0
        },
        "Uq": {
            "offset": 8.098133275069586e-11,
            "scale": 0.4000000059604645
        },
        "Vd": {
            "offset": 143.28477478027344,
            "scale": 329.87640380859375
        },
        "Vq": {
            "offset": -2.0006730556488037,
            "scale": 158.86859130859375
        }
    },
    "dataset_class": "test_no_r",
    "dataset_name": "test_no_r",
    "model_name": "new_model_no_r_sens",
    "optimizer_name": "Adam",
    "lr": 0.001,
    "eps": 0,
    "weight_decay": 0,
    "num_iter": 300,
    "batch_size": 128,
    "n_validation_pct": 0.2,
    "na": 2,
    "nb": 3,
    "nk": 0,
    "activation": "tanh",
    "f1_nodes": 20,
    "f2_nodes": 20,
    "f1_output_dim": 2,
    "f2_input_dim": 2,
    "f2_output_dim": 2,
    "criterion": "MSE",
    "msg_freq": 100,
    "dt": 0.01,
    "dc_gain": false,
    "sensitivity": true
}